{
  "type": "decision_tree",
  "dataset": "iris",
  "feature_names": [
    "sepal length (cm)",
    "sepal width (cm)",
    "petal length (cm)",
    "petal width (cm)"
  ],
  "tree_structure": {
    "children_left": [
      1,
      -1,
      3,
      4,
      -1,
      -1,
      7,
      8,
      -1,
      -1,
      11,
      -1,
      -1
    ],
    "children_right": [
      2,
      -1,
      6,
      5,
      -1,
      -1,
      10,
      9,
      -1,
      -1,
      12,
      -1,
      -1
    ],
    "feature": [
      2,
      -2,
      2,
      3,
      -2,
      -2,
      3,
      2,
      -2,
      -2,
      2,
      -2,
      -2
    ],
    "threshold": [
      2.449999988079071,
      -2.0,
      4.75,
      1.6500000357627869,
      -2.0,
      -2.0,
      1.75,
      4.950000047683716,
      -2.0,
      -2.0,
      4.8500001430511475,
      -2.0,
      -2.0
    ],
    "value": [
      [
        [
          0.3333333333333333,
          0.3416666666666667,
          0.325
        ]
      ],
      [
        [
          1.0,
          0.0,
          0.0
        ]
      ],
      [
        [
          0.0,
          0.5125,
          0.4875
        ]
      ],
      [
        [
          0.0,
          0.972972972972973,
          0.02702702702702703
        ]
      ],
      [
        [
          0.0,
          1.0,
          0.0
        ]
      ],
      [
        [
          0.0,
          0.0,
          1.0
        ]
      ],
      [
        [
          0.0,
          0.11627906976744186,
          0.8837209302325582
        ]
      ],
      [
        [
          0.0,
          0.5,
          0.5
        ]
      ],
      [
        [
          0.0,
          1.0,
          0.0
        ]
      ],
      [
        [
          0.0,
          0.3333333333333333,
          0.6666666666666666
        ]
      ],
      [
        [
          0.0,
          0.02857142857142857,
          0.9714285714285714
        ]
      ],
      [
        [
          0.0,
          0.3333333333333333,
          0.6666666666666666
        ]
      ],
      [
        [
          0.0,
          0.0,
          1.0
        ]
      ]
    ],
    "n_node_samples": [
      120,
      40,
      80,
      37,
      36,
      1,
      43,
      8,
      2,
      6,
      35,
      3,
      32
    ]
  },
  "classes": [
    0,
    1,
    2
  ],
  "sample_data": {
    "X": [
      [
        6.2,
        2.2,
        4.5,
        1.5
      ],
      [
        4.7,
        3.2,
        1.6,
        0.2
      ],
      [
        4.9,
        3.1,
        1.5,
        0.1
      ],
      [
        6.7,
        3.0,
        5.2,
        2.3
      ],
      [
        6.9,
        3.1,
        5.1,
        2.3
      ],
      [
        5.6,
        2.9,
        3.6,
        1.3
      ],
      [
        5.7,
        3.8,
        1.7,
        0.3
      ],
      [
        5.5,
        3.5,
        1.3,
        0.2
      ],
      [
        6.4,
        2.8,
        5.6,
        2.2
      ],
      [
        6.3,
        3.3,
        4.7,
        1.6
      ],
      [
        6.1,
        2.8,
        4.7,
        1.2
      ],
      [
        4.8,
        3.0,
        1.4,
        0.3
      ],
      [
        5.7,
        2.8,
        4.5,
        1.3
      ],
      [
        4.8,
        3.1,
        1.6,
        0.2
      ],
      [
        6.5,
        3.2,
        5.1,
        2.0
      ],
      [
        6.1,
        3.0,
        4.9,
        1.8
      ],
      [
        6.7,
        2.5,
        5.8,
        1.8
      ],
      [
        5.6,
        2.5,
        3.9,
        1.1
      ],
      [
        5.8,
        2.7,
        3.9,
        1.2
      ],
      [
        7.7,
        2.6,
        6.9,
        2.3
      ],
      [
        5.1,
        3.8,
        1.5,
        0.3
      ],
      [
        4.8,
        3.0,
        1.4,
        0.1
      ],
      [
        6.8,
        2.8,
        4.8,
        1.4
      ],
      [
        6.8,
        3.2,
        5.9,
        2.3
      ],
      [
        6.4,
        2.8,
        5.6,
        2.1
      ],
      [
        6.5,
        3.0,
        5.8,
        2.2
      ],
      [
        5.0,
        3.4,
        1.6,
        0.4
      ],
      [
        6.0,
        2.9,
        4.5,
        1.5
      ],
      [
        5.4,
        3.4,
        1.5,
        0.4
      ],
      [
        7.9,
        3.8,
        6.4,
        2.0
      ]
    ],
    "y": [
      1,
      0,
      0,
      2,
      2,
      1,
      0,
      0,
      2,
      1,
      1,
      0,
      1,
      0,
      2,
      2,
      2,
      1,
      1,
      2,
      0,
      0,
      1,
      2,
      2,
      2,
      0,
      1,
      0,
      2
    ],
    "feature_names": [
      "sepal length (cm)",
      "sepal width (cm)",
      "petal length (cm)",
      "petal width (cm)"
    ],
    "target_names": [
      "setosa",
      "versicolor",
      "virginica"
    ]
  },
  "target_names": [
    "setosa",
    "versicolor",
    "virginica"
  ]
}