{
  "type": "random_forest",
  "dataset": "wine",
  "feature_names": [
    "alcohol",
    "malic_acid",
    "ash",
    "alcalinity_of_ash",
    "magnesium",
    "total_phenols",
    "flavanoids",
    "nonflavanoid_phenols",
    "proanthocyanins",
    "color_intensity",
    "hue",
    "od280/od315_of_diluted_wines",
    "proline"
  ],
  "n_estimators": 10,
  "trees": [
    {
      "children_left": [
        1,
        2,
        3,
        -1,
        -1,
        6,
        -1,
        -1,
        9,
        10,
        -1,
        -1,
        13,
        -1,
        15,
        16,
        -1,
        -1,
        -1
      ],
      "children_right": [
        8,
        5,
        4,
        -1,
        -1,
        7,
        -1,
        -1,
        12,
        11,
        -1,
        -1,
        14,
        -1,
        18,
        17,
        -1,
        -1,
        -1
      ],
      "feature": [
        11,
        0,
        1,
        -2,
        -2,
        6,
        -2,
        -2,
        6,
        9,
        -2,
        -2,
        4,
        -2,
        8,
        9,
        -2,
        -2,
        -2
      ],
      "threshold": [
        2.125,
        12.40999984741211,
        3.1649999022483826,
        -2.0,
        -2.0,
        1.3849999904632568,
        -2.0,
        -2.0,
        2.340000033378601,
        4.759999990463257,
        -2.0,
        -2.0,
        89.5,
        -2.0,
        3.194999933242798,
        3.4649999141693115,
        -2.0,
        -2.0,
        -2.0
      ],
      "value": [
        [
          [
            0.2746478873239437,
            0.43661971830985913,
            0.2887323943661972
          ]
        ],
        [
          [
            0.0,
            0.07317073170731707,
            0.926829268292683
          ]
        ],
        [
          [
            0.0,
            0.6666666666666666,
            0.3333333333333333
          ]
        ],
        [
          [
            0.0,
            1.0,
            0.0
          ]
        ],
        [
          [
            0.0,
            0.0,
            1.0
          ]
        ],
        [
          [
            0.0,
            0.02631578947368421,
            0.9736842105263158
          ]
        ],
        [
          [
            0.0,
            0.0,
            1.0
          ]
        ],
        [
          [
            0.0,
            1.0,
            0.0
          ]
        ],
        [
          [
            0.38613861386138615,
            0.5841584158415841,
            0.0297029702970297
          ]
        ],
        [
          [
            0.0,
            0.9411764705882353,
            0.058823529411764705
          ]
        ],
        [
          [
            0.0,
            1.0,
            0.0
          ]
        ],
        [
          [
            0.0,
            0.0,
            1.0
          ]
        ],
        [
          [
            0.78,
            0.22,
            0.0
          ]
        ],
        [
          [
            0.0,
            1.0,
            0.0
          ]
        ],
        [
          [
            0.9069767441860465,
            0.09302325581395349,
            0.0
          ]
        ],
        [
          [
            0.9285714285714286,
            0.07142857142857142,
            0.0
          ]
        ],
        [
          [
            0.0,
            1.0,
            0.0
          ]
        ],
        [
          [
            1.0,
            0.0,
            0.0
          ]
        ],
        [
          [
            0.0,
            1.0,
            0.0
          ]
        ]
      ]
    },
    {
      "children_left": [
        1,
        2,
        3,
        4,
        -1,
        -1,
        -1,
        -1,
        9,
        10,
        -1,
        -1,
        13,
        -1,
        15,
        -1,
        -1
      ],
      "children_right": [
        8,
        7,
        6,
        5,
        -1,
        -1,
        -1,
        -1,
        12,
        11,
        -1,
        -1,
        14,
        -1,
        16,
        -1,
        -1
      ],
      "feature": [
        6,
        4,
        2,
        2,
        -2,
        -2,
        -2,
        -2,
        6,
        9,
        -2,
        -2,
        9,
        -2,
        12,
        -2,
        -2
      ],
      "threshold": [
        1.2899999618530273,
        128.0,
        2.2300000190734863,
        2.2050000429153442,
        -2.0,
        -2.0,
        -2.0,
        -2.0,
        2.319999933242798,
        7.099999904632568,
        -2.0,
        -2.0,
        3.590000033378601,
        -2.0,
        710.0,
        -2.0,
        -2.0
      ],
      "value": [
        [
          [
            0.28169014084507044,
            0.4154929577464789,
            0.3028169014084507
          ]
        ],
        [
          [
            0.0,
            0.06818181818181818,
            0.9318181818181818
          ]
        ],
        [
          [
            0.0,
            0.046511627906976744,
            0.9534883720930233
          ]
        ],
        [
          [
            0.0,
            0.25,
            0.75
          ]
        ],
        [
          [
            0.0,
            0.0,
            1.0
          ]
        ],
        [
          [
            0.0,
            1.0,
            0.0
          ]
        ],
        [
          [
            0.0,
            0.0,
            1.0
          ]
        ],
        [
          [
            0.0,
            1.0,
            0.0
          ]
        ],
        [
          [
            0.40816326530612246,
            0.5714285714285714,
            0.02040816326530612
          ]
        ],
        [
          [
            0.0,
            0.9523809523809523,
            0.047619047619047616
          ]
        ],
        [
          [
            0.0,
            1.0,
            0.0
          ]
        ],
        [
          [
            0.0,
            0.0,
            1.0
          ]
        ],
        [
          [
            0.7142857142857143,
            0.2857142857142857,
            0.0
          ]
        ],
        [
          [
            0.0,
            1.0,
            0.0
          ]
        ],
        [
          [
            0.9090909090909091,
            0.09090909090909091,
            0.0
          ]
        ],
        [
          [
            0.0,
            1.0,
            0.0
          ]
        ],
        [
          [
            1.0,
            0.0,
            0.0
          ]
        ]
      ]
    },
    {
      "children_left": [
        1,
        -1,
        3,
        4,
        -1,
        6,
        -1,
        8,
        -1,
        -1,
        11,
        -1,
        13,
        -1,
        -1
      ],
      "children_right": [
        2,
        -1,
        10,
        5,
        -1,
        7,
        -1,
        9,
        -1,
        -1,
        12,
        -1,
        14,
        -1,
        -1
      ],
      "feature": [
        6,
        -2,
        6,
        11,
        -2,
        0,
        -2,
        5,
        -2,
        -2,
        4,
        -2,
        12,
        -2,
        -2
      ],
      "threshold": [
        0.9550000131130219,
        -2.0,
        2.319999933242798,
        1.6200000047683716,
        -2.0,
        13.010000228881836,
        -2.0,
        2.25,
        -2.0,
        -2.0,
        89.5,
        -2.0,
        680.0,
        -2.0,
        -2.0
      ],
      "value": [
        [
          [
            0.34507042253521125,
            0.3591549295774648,
            0.29577464788732394
          ]
        ],
        [
          [
            0.0,
            0.0,
            1.0
          ]
        ],
        [
          [
            0.46226415094339623,
            0.4811320754716981,
            0.05660377358490566
          ]
        ],
        [
          [
            0.02127659574468085,
            0.851063829787234,
            0.1276595744680851
          ]
        ],
        [
          [
            0.0,
            0.0,
            1.0
          ]
        ],
        [
          [
            0.024390243902439025,
            0.975609756097561,
            0.0
          ]
        ],
        [
          [
            0.0,
            1.0,
            0.0
          ]
        ],
        [
          [
            0.25,
            0.75,
            0.0
          ]
        ],
        [
          [
            0.0,
            1.0,
            0.0
          ]
        ],
        [
          [
            1.0,
            0.0,
            0.0
          ]
        ],
        [
          [
            0.8135593220338984,
            0.1864406779661017,
            0.0
          ]
        ],
        [
          [
            0.0,
            1.0,
            0.0
          ]
        ],
        [
          [
            0.96,
            0.04,
            0.0
          ]
        ],
        [
          [
            0.0,
            1.0,
            0.0
          ]
        ],
        [
          [
            1.0,
            0.0,
            0.0
          ]
        ]
      ]
    },
    {
      "children_left": [
        1,
        2,
        -1,
        4,
        -1,
        -1,
        7,
        -1,
        9,
        -1,
        11,
        -1,
        13,
        -1,
        -1
      ],
      "children_right": [
        6,
        3,
        -1,
        5,
        -1,
        -1,
        8,
        -1,
        10,
        -1,
        12,
        -1,
        14,
        -1,
        -1
      ],
      "feature": [
        6,
        10,
        -2,
        9,
        -2,
        -2,
        4,
        -2,
        6,
        -2,
        10,
        -2,
        3,
        -2,
        -2
      ],
      "threshold": [
        1.35999995470047,
        0.8980000019073486,
        -2.0,
        3.7850000858306885,
        -2.0,
        -2.0,
        90.5,
        -2.0,
        2.350000023841858,
        -2.0,
        0.8100000023841858,
        -2.0,
        27.5,
        -2.0,
        -2.0
      ],
      "value": [
        [
          [
            0.33098591549295775,
            0.31690140845070425,
            0.352112676056338
          ]
        ],
        [
          [
            0.0,
            0.10714285714285714,
            0.8928571428571429
          ]
        ],
        [
          [
            0.0,
            0.0,
            1.0
          ]
        ],
        [
          [
            0.0,
            0.75,
            0.25
          ]
        ],
        [
          [
            0.0,
            1.0,
            0.0
          ]
        ],
        [
          [
            0.0,
            0.0,
            1.0
          ]
        ],
        [
          [
            0.5465116279069767,
            0.45348837209302323,
            0.0
          ]
        ],
        [
          [
            0.0,
            1.0,
            0.0
          ]
        ],
        [
          [
            0.7230769230769231,
            0.27692307692307694,
            0.0
          ]
        ],
        [
          [
            0.0,
            1.0,
            0.0
          ]
        ],
        [
          [
            0.94,
            0.06,
            0.0
          ]
        ],
        [
          [
            0.0,
            1.0,
            0.0
          ]
        ],
        [
          [
            0.9591836734693877,
            0.04081632653061224,
            0.0
          ]
        ],
        [
          [
            0.9791666666666666,
            0.020833333333333332,
            0.0
          ]
        ],
        [
          [
            0.0,
            1.0,
            0.0
          ]
        ]
      ]
    },
    {
      "children_left": [
        1,
        2,
        -1,
        4,
        -1,
        6,
        -1,
        -1,
        9,
        10,
        11,
        -1,
        -1,
        -1,
        15,
        -1,
        17,
        -1,
        -1
      ],
      "children_right": [
        8,
        3,
        -1,
        5,
        -1,
        7,
        -1,
        -1,
        14,
        13,
        12,
        -1,
        -1,
        -1,
        16,
        -1,
        18,
        -1,
        -1
      ],
      "feature": [
        6,
        2,
        -2,
        7,
        -2,
        10,
        -2,
        -2,
        9,
        6,
        3,
        -2,
        -2,
        -2,
        4,
        -2,
        6,
        -2,
        -2
      ],
      "threshold": [
        1.399999976158142,
        2.2200000286102295,
        -2.0,
        0.1550000011920929,
        -2.0,
        1.004999965429306,
        -2.0,
        -2.0,
        3.865000009536743,
        2.8350000381469727,
        15.75,
        -2.0,
        -2.0,
        -2.0,
        89.5,
        -2.0,
        1.8899999260902405,
        -2.0,
        -2.0
      ],
      "value": [
        [
          [
            0.31690140845070425,
            0.34507042253521125,
            0.3380281690140845
          ]
        ],
        [
          [
            0.0,
            0.1111111111111111,
            0.8888888888888888
          ]
        ],
        [
          [
            0.0,
            1.0,
            0.0
          ]
        ],
        [
          [
            0.0,
            0.058823529411764705,
            0.9411764705882353
          ]
        ],
        [
          [
            0.0,
            1.0,
            0.0
          ]
        ],
        [
          [
            0.0,
            0.04,
            0.96
          ]
        ],
        [
          [
            0.0,
            0.0,
            1.0
          ]
        ],
        [
          [
            0.0,
            1.0,
            0.0
          ]
        ],
        [
          [
            0.5113636363636364,
            0.48863636363636365,
            0.0
          ]
        ],
        [
          [
            0.05,
            0.95,
            0.0
          ]
        ],
        [
          [
            0.02564102564102564,
            0.9743589743589743,
            0.0
          ]
        ],
        [
          [
            1.0,
            0.0,
            0.0
          ]
        ],
        [
          [
            0.0,
            1.0,
            0.0
          ]
        ],
        [
          [
            1.0,
            0.0,
            0.0
          ]
        ],
        [
          [
            0.8958333333333334,
            0.10416666666666667,
            0.0
          ]
        ],
        [
          [
            0.0,
            1.0,
            0.0
          ]
        ],
        [
          [
            0.9555555555555556,
            0.044444444444444446,
            0.0
          ]
        ],
        [
          [
            0.0,
            1.0,
            0.0
          ]
        ],
        [
          [
            1.0,
            0.0,
            0.0
          ]
        ]
      ]
    },
    {
      "children_left": [
        1,
        2,
        3,
        -1,
        -1,
        -1,
        7,
        8,
        9,
        -1,
        -1,
        -1,
        13,
        -1,
        15,
        -1,
        -1
      ],
      "children_right": [
        6,
        5,
        4,
        -1,
        -1,
        -1,
        12,
        11,
        10,
        -1,
        -1,
        -1,
        14,
        -1,
        16,
        -1,
        -1
      ],
      "feature": [
        0,
        6,
        10,
        -2,
        -2,
        -2,
        5,
        4,
        11,
        -2,
        -2,
        -2,
        7,
        -2,
        9,
        -2,
        -2
      ],
      "threshold": [
        12.744999885559082,
        0.9399999976158142,
        0.9349999725818634,
        -2.0,
        -2.0,
        -2.0,
        2.334999918937683,
        87.0,
        1.9050000309944153,
        -2.0,
        -2.0,
        -2.0,
        0.5099999904632568,
        -2.0,
        7.460000038146973,
        -2.0,
        -2.0
      ],
      "value": [
        [
          [
            0.4507042253521127,
            0.2887323943661972,
            0.2605633802816901
          ]
        ],
        [
          [
            0.0,
            0.8536585365853658,
            0.14634146341463414
          ]
        ],
        [
          [
            0.0,
            0.25,
            0.75
          ]
        ],
        [
          [
            0.0,
            0.0,
            1.0
          ]
        ],
        [
          [
            0.0,
            1.0,
            0.0
          ]
        ],
        [
          [
            0.0,
            1.0,
            0.0
          ]
        ],
        [
          [
            0.6336633663366337,
            0.0594059405940594,
            0.3069306930693069
          ]
        ],
        [
          [
            0.0,
            0.0625,
            0.9375
          ]
        ],
        [
          [
            0.0,
            0.6666666666666666,
            0.3333333333333333
          ]
        ],
        [
          [
            0.0,
            0.0,
            1.0
          ]
        ],
        [
          [
            0.0,
            1.0,
            0.0
          ]
        ],
        [
          [
            0.0,
            0.0,
            1.0
          ]
        ],
        [
          [
            0.927536231884058,
            0.057971014492753624,
            0.014492753623188406
          ]
        ],
        [
          [
            1.0,
            0.0,
            0.0
          ]
        ],
        [
          [
            0.0,
            0.8,
            0.2
          ]
        ],
        [
          [
            0.0,
            1.0,
            0.0
          ]
        ],
        [
          [
            0.0,
            0.0,
            1.0
          ]
        ]
      ]
    },
    {
      "children_left": [
        1,
        2,
        3,
        -1,
        5,
        -1,
        -1,
        8,
        -1,
        10,
        11,
        -1,
        -1,
        -1,
        15,
        -1,
        17,
        -1,
        -1
      ],
      "children_right": [
        14,
        7,
        4,
        -1,
        6,
        -1,
        -1,
        9,
        -1,
        13,
        12,
        -1,
        -1,
        -1,
        16,
        -1,
        18,
        -1,
        -1
      ],
      "feature": [
        6,
        5,
        4,
        -2,
        5,
        -2,
        -2,
        0,
        -2,
        6,
        10,
        -2,
        -2,
        -2,
        12,
        -2,
        4,
        -2,
        -2
      ],
      "threshold": [
        2.3149999380111694,
        1.7100000381469727,
        86.5,
        -2.0,
        1.175000011920929,
        -2.0,
        -2.0,
        12.349999904632568,
        -2.0,
        1.2899999618530273,
        1.004999965429306,
        -2.0,
        -2.0,
        -2.0,
        670.0,
        -2.0,
        135.5,
        -2.0,
        -2.0
      ],
      "value": [
        [
          [
            0.34507042253521125,
            0.4647887323943662,
            0.19014084507042253
          ]
        ],
        [
          [
            0.0,
            0.6493506493506493,
            0.35064935064935066
          ]
        ],
        [
          [
            0.0,
            0.2692307692307692,
            0.7307692307692307
          ]
        ],
        [
          [
            0.0,
            1.0,
            0.0
          ]
        ],
        [
          [
            0.0,
            0.09523809523809523,
            0.9047619047619048
          ]
        ],
        [
          [
            0.0,
            1.0,
            0.0
          ]
        ],
        [
          [
            0.0,
            0.0,
            1.0
          ]
        ],
        [
          [
            0.0,
            0.8431372549019608,
            0.1568627450980392
          ]
        ],
        [
          [
            0.0,
            1.0,
            0.0
          ]
        ],
        [
          [
            0.0,
            0.4666666666666667,
            0.5333333333333333
          ]
        ],
        [
          [
            0.0,
            0.1111111111111111,
            0.8888888888888888
          ]
        ],
        [
          [
            0.0,
            0.0,
            1.0
          ]
        ],
        [
          [
            0.0,
            1.0,
            0.0
          ]
        ],
        [
          [
            0.0,
            1.0,
            0.0
          ]
        ],
        [
          [
            0.7538461538461538,
            0.24615384615384617,
            0.0
          ]
        ],
        [
          [
            0.0,
            1.0,
            0.0
          ]
        ],
        [
          [
            0.9607843137254902,
            0.0392156862745098,
            0.0
          ]
        ],
        [
          [
            1.0,
            0.0,
            0.0
          ]
        ],
        [
          [
            0.0,
            1.0,
            0.0
          ]
        ]
      ]
    },
    {
      "children_left": [
        1,
        2,
        3,
        -1,
        -1,
        6,
        -1,
        -1,
        9,
        10,
        -1,
        -1,
        13,
        -1,
        -1
      ],
      "children_right": [
        8,
        5,
        4,
        -1,
        -1,
        7,
        -1,
        -1,
        12,
        11,
        -1,
        -1,
        14,
        -1,
        -1
      ],
      "feature": [
        5,
        1,
        11,
        -2,
        -2,
        6,
        -2,
        -2,
        12,
        11,
        -2,
        -2,
        9,
        -2,
        -2
      ],
      "threshold": [
        2.3799999952316284,
        2.2200000286102295,
        1.5699999928474426,
        -2.0,
        -2.0,
        1.2700000405311584,
        -2.0,
        -2.0,
        670.0,
        2.350000023841858,
        -2.0,
        -2.0,
        3.4649999141693115,
        -2.0,
        -2.0
      ],
      "value": [
        [
          [
            0.30985915492957744,
            0.45774647887323944,
            0.2323943661971831
          ]
        ],
        [
          [
            0.0,
            0.5753424657534246,
            0.4246575342465753
          ]
        ],
        [
          [
            0.0,
            0.9428571428571428,
            0.05714285714285714
          ]
        ],
        [
          [
            0.0,
            0.0,
            1.0
          ]
        ],
        [
          [
            0.0,
            1.0,
            0.0
          ]
        ],
        [
          [
            0.0,
            0.23684210526315788,
            0.7631578947368421
          ]
        ],
        [
          [
            0.0,
            0.0,
            1.0
          ]
        ],
        [
          [
            0.0,
            1.0,
            0.0
          ]
        ],
        [
          [
            0.6376811594202898,
            0.3333333333333333,
            0.028985507246376812
          ]
        ],
        [
          [
            0.0,
            0.8888888888888888,
            0.1111111111111111
          ]
        ],
        [
          [
            0.0,
            0.0,
            1.0
          ]
        ],
        [
          [
            0.0,
            1.0,
            0.0
          ]
        ],
        [
          [
            0.8627450980392157,
            0.13725490196078433,
            0.0
          ]
        ],
        [
          [
            0.0,
            1.0,
            0.0
          ]
        ],
        [
          [
            1.0,
            0.0,
            0.0
          ]
        ]
      ]
    },
    {
      "children_left": [
        1,
        2,
        3,
        4,
        -1,
        -1,
        -1,
        8,
        9,
        -1,
        -1,
        12,
        -1,
        -1,
        15,
        -1,
        17,
        -1,
        -1
      ],
      "children_right": [
        14,
        7,
        6,
        5,
        -1,
        -1,
        -1,
        11,
        10,
        -1,
        -1,
        13,
        -1,
        -1,
        16,
        -1,
        18,
        -1,
        -1
      ],
      "feature": [
        7,
        12,
        8,
        2,
        -2,
        -2,
        -2,
        6,
        0,
        -2,
        -2,
        3,
        -2,
        -2,
        6,
        -2,
        0,
        -2,
        -2
      ],
      "threshold": [
        0.39499999582767487,
        726.5,
        0.9849999845027924,
        2.119999945163727,
        -2.0,
        -2.0,
        -2.0,
        2.350000023841858,
        12.885000228881836,
        -2.0,
        -2.0,
        25.5,
        -2.0,
        -2.0,
        1.175000011920929,
        -2.0,
        13.510000228881836,
        -2.0,
        -2.0
      ],
      "value": [
        [
          [
            0.2535211267605634,
            0.44366197183098594,
            0.3028169014084507
          ]
        ],
        [
          [
            0.4473684210526316,
            0.5263157894736842,
            0.02631578947368421
          ]
        ],
        [
          [
            0.0,
            0.9459459459459459,
            0.05405405405405406
          ]
        ],
        [
          [
            0.0,
            0.6666666666666666,
            0.3333333333333333
          ]
        ],
        [
          [
            0.0,
            1.0,
            0.0
          ]
        ],
        [
          [
            0.0,
            0.0,
            1.0
          ]
        ],
        [
          [
            0.0,
            1.0,
            0.0
          ]
        ],
        [
          [
            0.8717948717948718,
            0.1282051282051282,
            0.0
          ]
        ],
        [
          [
            0.2,
            0.8,
            0.0
          ]
        ],
        [
          [
            0.0,
            1.0,
            0.0
          ]
        ],
        [
          [
            1.0,
            0.0,
            0.0
          ]
        ],
        [
          [
            0.9705882352941176,
            0.029411764705882353,
            0.0
          ]
        ],
        [
          [
            1.0,
            0.0,
            0.0
          ]
        ],
        [
          [
            0.0,
            1.0,
            0.0
          ]
        ],
        [
          [
            0.030303030303030304,
            0.3484848484848485,
            0.6212121212121212
          ]
        ],
        [
          [
            0.0,
            0.0,
            1.0
          ]
        ],
        [
          [
            0.08,
            0.92,
            0.0
          ]
        ],
        [
          [
            0.0,
            1.0,
            0.0
          ]
        ],
        [
          [
            1.0,
            0.0,
            0.0
          ]
        ]
      ]
    },
    {
      "children_left": [
        1,
        2,
        -1,
        -1,
        5,
        6,
        -1,
        -1,
        9,
        -1,
        -1
      ],
      "children_right": [
        4,
        3,
        -1,
        -1,
        8,
        7,
        -1,
        -1,
        10,
        -1,
        -1
      ],
      "feature": [
        9,
        2,
        -2,
        -2,
        11,
        10,
        -2,
        -2,
        5,
        -2,
        -2
      ],
      "threshold": [
        3.7699999809265137,
        3.0,
        -2.0,
        -2.0,
        2.5049999952316284,
        0.945000022649765,
        -2.0,
        -2.0,
        3.409999966621399,
        -2.0,
        -2.0
      ],
      "value": [
        [
          [
            0.2887323943661972,
            0.38028169014084506,
            0.33098591549295775
          ]
        ],
        [
          [
            0.020833333333333332,
            0.9791666666666666,
            0.0
          ]
        ],
        [
          [
            0.0,
            1.0,
            0.0
          ]
        ],
        [
          [
            1.0,
            0.0,
            0.0
          ]
        ],
        [
          [
            0.425531914893617,
            0.07446808510638298,
            0.5
          ]
        ],
        [
          [
            0.0,
            0.11320754716981132,
            0.8867924528301887
          ]
        ],
        [
          [
            0.0,
            0.0,
            1.0
          ]
        ],
        [
          [
            0.0,
            1.0,
            0.0
          ]
        ],
        [
          [
            0.975609756097561,
            0.024390243902439025,
            0.0
          ]
        ],
        [
          [
            1.0,
            0.0,
            0.0
          ]
        ],
        [
          [
            0.0,
            1.0,
            0.0
          ]
        ]
      ]
    }
  ],
  "classes": [
    0,
    1,
    2
  ],
  "sample_data": {
    "X": [
      [
        13.5,
        1.81,
        2.61,
        20.0,
        96.0,
        2.53,
        2.61,
        0.28,
        1.66,
        3.52,
        1.12,
        3.82,
        845.0
      ],
      [
        12.0,
        3.43,
        2.0,
        19.0,
        87.0,
        2.0,
        1.64,
        0.37,
        1.87,
        1.28,
        0.93,
        3.05,
        564.0
      ],
      [
        13.5,
        3.12,
        2.62,
        24.0,
        123.0,
        1.4,
        1.57,
        0.22,
        1.25,
        8.6,
        0.59,
        1.3,
        500.0
      ],
      [
        11.61,
        1.35,
        2.7,
        20.0,
        94.0,
        2.74,
        2.92,
        0.29,
        2.49,
        2.65,
        0.96,
        3.26,
        680.0
      ],
      [
        13.41,
        3.84,
        2.12,
        18.8,
        90.0,
        2.45,
        2.68,
        0.27,
        1.48,
        4.28,
        0.91,
        3.0,
        1035.0
      ],
      [
        12.77,
        3.43,
        1.98,
        16.0,
        80.0,
        1.63,
        1.25,
        0.43,
        0.83,
        3.4,
        0.7,
        2.12,
        372.0
      ],
      [
        12.08,
        1.83,
        2.32,
        18.5,
        81.0,
        1.6,
        1.5,
        0.52,
        1.64,
        2.4,
        1.08,
        2.27,
        480.0
      ],
      [
        13.78,
        2.76,
        2.3,
        22.0,
        90.0,
        1.35,
        0.68,
        0.41,
        1.03,
        9.58,
        0.7,
        1.68,
        615.0
      ],
      [
        12.42,
        1.61,
        2.19,
        22.5,
        108.0,
        2.0,
        2.09,
        0.34,
        1.61,
        2.06,
        1.06,
        2.96,
        345.0
      ],
      [
        13.63,
        1.81,
        2.7,
        17.2,
        112.0,
        2.85,
        2.91,
        0.3,
        1.46,
        7.3,
        1.28,
        2.88,
        1310.0
      ],
      [
        12.37,
        1.63,
        2.3,
        24.5,
        88.0,
        2.22,
        2.45,
        0.4,
        1.9,
        2.12,
        0.89,
        2.78,
        342.0
      ],
      [
        14.02,
        1.68,
        2.21,
        16.0,
        96.0,
        2.65,
        2.33,
        0.26,
        1.98,
        4.7,
        1.04,
        3.59,
        1035.0
      ],
      [
        13.58,
        1.66,
        2.36,
        19.1,
        106.0,
        2.86,
        3.19,
        0.22,
        1.95,
        6.9,
        1.09,
        2.88,
        1515.0
      ],
      [
        11.41,
        0.74,
        2.5,
        21.0,
        88.0,
        2.48,
        2.01,
        0.42,
        1.44,
        3.08,
        1.1,
        2.31,
        434.0
      ],
      [
        13.11,
        1.01,
        1.7,
        15.0,
        78.0,
        2.98,
        3.18,
        0.26,
        2.28,
        5.3,
        1.12,
        3.18,
        502.0
      ],
      [
        12.37,
        1.21,
        2.56,
        18.1,
        98.0,
        2.42,
        2.65,
        0.37,
        2.08,
        4.6,
        1.19,
        2.3,
        678.0
      ],
      [
        12.93,
        2.81,
        2.7,
        21.0,
        96.0,
        1.54,
        0.5,
        0.53,
        0.75,
        4.6,
        0.77,
        2.31,
        600.0
      ],
      [
        13.16,
        3.57,
        2.15,
        21.0,
        102.0,
        1.5,
        0.55,
        0.43,
        1.3,
        4.0,
        0.6,
        1.68,
        830.0
      ],
      [
        13.56,
        1.73,
        2.46,
        20.5,
        116.0,
        2.96,
        2.78,
        0.2,
        2.45,
        6.25,
        0.98,
        3.03,
        1120.0
      ],
      [
        14.3,
        1.92,
        2.72,
        20.0,
        120.0,
        2.8,
        3.14,
        0.33,
        1.97,
        6.2,
        1.07,
        2.65,
        1280.0
      ],
      [
        14.19,
        1.59,
        2.48,
        16.5,
        108.0,
        3.3,
        3.93,
        0.32,
        1.86,
        8.7,
        1.23,
        2.82,
        1680.0
      ],
      [
        12.33,
        1.1,
        2.28,
        16.0,
        101.0,
        2.05,
        1.09,
        0.63,
        0.41,
        3.27,
        1.25,
        1.67,
        680.0
      ],
      [
        13.73,
        1.5,
        2.7,
        22.5,
        101.0,
        3.0,
        3.25,
        0.29,
        2.38,
        5.7,
        1.19,
        2.71,
        1285.0
      ],
      [
        13.75,
        1.73,
        2.41,
        16.0,
        89.0,
        2.6,
        2.76,
        0.29,
        1.81,
        5.6,
        1.15,
        2.9,
        1320.0
      ],
      [
        13.64,
        3.1,
        2.56,
        15.2,
        116.0,
        2.7,
        3.03,
        0.17,
        1.66,
        5.1,
        0.96,
        3.36,
        845.0
      ],
      [
        13.36,
        2.56,
        2.35,
        20.0,
        89.0,
        1.4,
        0.5,
        0.37,
        0.64,
        5.6,
        0.7,
        2.47,
        780.0
      ],
      [
        13.4,
        3.91,
        2.48,
        23.0,
        102.0,
        1.8,
        0.75,
        0.43,
        1.41,
        7.3,
        0.7,
        1.56,
        750.0
      ],
      [
        14.21,
        4.04,
        2.44,
        18.9,
        111.0,
        2.85,
        2.65,
        0.3,
        1.25,
        5.24,
        0.87,
        3.33,
        1080.0
      ],
      [
        12.37,
        1.17,
        1.92,
        19.6,
        78.0,
        2.11,
        2.0,
        0.27,
        1.04,
        4.68,
        1.12,
        3.48,
        510.0
      ],
      [
        12.08,
        1.39,
        2.5,
        22.5,
        84.0,
        2.56,
        2.29,
        0.43,
        1.04,
        2.9,
        0.93,
        3.19,
        385.0
      ],
      [
        13.4,
        4.6,
        2.86,
        25.0,
        112.0,
        1.98,
        0.96,
        0.27,
        1.11,
        8.5,
        0.67,
        1.92,
        630.0
      ],
      [
        13.86,
        1.35,
        2.27,
        16.0,
        98.0,
        2.98,
        3.15,
        0.22,
        1.85,
        7.22,
        1.01,
        3.55,
        1045.0
      ],
      [
        12.52,
        2.43,
        2.17,
        21.0,
        88.0,
        2.55,
        2.27,
        0.26,
        1.22,
        2.0,
        0.9,
        2.78,
        325.0
      ],
      [
        12.08,
        1.13,
        2.51,
        24.0,
        78.0,
        2.0,
        1.58,
        0.4,
        1.4,
        2.2,
        1.31,
        2.72,
        630.0
      ],
      [
        12.77,
        2.39,
        2.28,
        19.5,
        86.0,
        1.39,
        0.51,
        0.48,
        0.64,
        9.899999,
        0.57,
        1.63,
        470.0
      ],
      [
        13.88,
        1.89,
        2.59,
        15.0,
        101.0,
        3.25,
        3.56,
        0.17,
        1.7,
        5.43,
        0.88,
        3.56,
        1095.0
      ]
    ],
    "y": [
      0,
      1,
      2,
      1,
      0,
      1,
      1,
      2,
      1,
      0,
      1,
      0,
      0,
      1,
      1,
      1,
      2,
      2,
      0,
      0,
      0,
      1,
      0,
      0,
      0,
      2,
      2,
      0,
      1,
      1,
      2,
      0,
      1,
      1,
      2,
      0
    ],
    "feature_names": [
      "alcohol",
      "malic_acid",
      "ash",
      "alcalinity_of_ash",
      "magnesium",
      "total_phenols",
      "flavanoids",
      "nonflavanoid_phenols",
      "proanthocyanins",
      "color_intensity",
      "hue",
      "od280/od315_of_diluted_wines",
      "proline"
    ],
    "target_names": [
      "class_0",
      "class_1",
      "class_2"
    ]
  },
  "target_names": [
    "class_0",
    "class_1",
    "class_2"
  ]
}